Cufon.registerFont({"w":524,"face":{"font-family":"Klavika Regular","font-weight":400,"font-stretch":"normal","units-per-em":"2048","panose-1":"2 0 5 6 4 0 0 2 0 4","ascent":"1638","descent":"-410","x-height":"20","bbox":"-18 -1618 1819 430","underline-thickness":"40.96","underline-position":"-231.424","stemh":"150","stemv":"172","unicode-range":"U+0020-U+007E"},"glyphs":{" ":{"w":440},"!":{"d":"326,-389r-107,0r-33,-348r0,-668r172,0r0,668xm184,0r0,-236r176,0r0,236r-176,0","w":544},"\"":{"d":"285,-903r-142,0r0,-502r142,0r0,502xm625,-903r-142,0r0,-502r142,0r0,502","w":768},"#":{"d":"770,0r14,-244r-331,0r-15,244r-137,0r14,-244r-213,0r7,-127r215,0r18,-309r-215,0r8,-127r215,0r15,-237r137,0r-15,237r332,0r15,-237r137,0r-15,237r224,0r-9,127r-223,0r-18,309r223,0r-8,127r-223,0r-15,244r-137,0xm479,-680r-18,309r332,0r18,-309r-332,0","w":1292},"$":{"d":"397,215r0,-199v-90,-6,-190,-24,-274,-55r22,-135v102,29,224,47,328,47v182,0,203,-34,203,-149v0,-115,0,-140,-215,-173v-299,-45,-324,-112,-324,-331v0,-195,78,-271,295,-283r0,-197r152,0r0,197v84,4,162,14,250,39r-17,141v-94,-23,-227,-35,-305,-35v-172,0,-203,15,-203,140v0,131,0,143,205,178v295,51,334,98,334,313v0,184,-47,289,-299,305r0,197r-152,0","w":974},"%":{"d":"469,-33r471,-1032r115,51r-473,1034xm635,-836r0,134v0,150,-78,229,-266,229v-188,0,-267,-79,-267,-229r0,-134v0,-150,79,-229,267,-229v188,0,266,79,266,229xm233,-840r0,142v0,76,38,110,136,110v98,0,135,-34,135,-110r0,-142v0,-76,-37,-110,-135,-110v-98,0,-136,34,-136,110xm1419,-342r0,133v0,150,-78,229,-266,229v-188,0,-266,-79,-266,-229r0,-133v0,-150,78,-229,266,-229v188,0,266,79,266,229xm1018,-346r0,141v0,76,37,111,135,111v98,0,135,-35,135,-111r0,-141v0,-76,-37,-111,-135,-111v-98,0,-135,35,-135,111","w":1511},"&":{"d":"1200,-610r-201,0r0,573v-139,39,-280,57,-417,57v-311,0,-428,-110,-428,-327r0,-125v0,-133,61,-229,180,-262v-161,-67,-152,-192,-152,-383v0,-195,105,-307,410,-307v125,0,275,16,375,36r-17,142v-102,-16,-243,-29,-356,-29v-180,0,-240,47,-240,178r0,137v0,96,52,162,185,162r661,0r0,148xm582,-129v90,0,168,-7,254,-25r0,-456r-291,0v-154,0,-219,53,-219,186r0,98v0,141,57,197,256,197","w":1261},"'":{"d":"285,-903r-142,0r0,-502r142,0r0,502","w":428},"(":{"d":"459,-1561r123,82v-195,303,-267,557,-267,856v0,299,72,553,267,856r-123,82v-203,-272,-316,-578,-316,-938v0,-360,113,-666,316,-938","w":622},")":{"d":"41,-1479r123,-82v203,272,315,578,315,938v0,360,-112,666,-315,938r-123,-82v195,-303,266,-557,266,-856v0,-299,-71,-553,-266,-856","w":622},"*":{"d":"236,-784r159,-246r-293,0r0,-96r297,0r-161,-250r77,-51r168,260r168,-260r78,51r-162,250r299,0r0,96r-295,0r160,246r-80,49r-168,-260r-168,260","w":968},"+":{"d":"123,-426r0,-143r340,0r0,-346r151,0r0,346r340,0r0,143r-340,0r0,346r-151,0r0,-346r-340,0","w":1077},",":{"d":"170,0r0,-236r176,0r0,236r-123,246r-80,-39r86,-207r-59,0","w":520},"-":{"d":"123,-500r0,-141r512,0r0,141r-512,0","w":757},".":{"d":"174,0r0,-236r176,0r0,236r-176,0"},"\/":{"d":"791,-1384r-506,1624r-162,0r504,-1624r164,0","w":913},"0":{"d":"981,-711r0,377v0,205,-115,354,-424,354v-309,0,-424,-149,-424,-354r0,-377v0,-205,115,-354,424,-354v309,0,424,149,424,354xm809,-694v0,-147,-57,-219,-252,-219v-195,0,-252,72,-252,219r0,344v0,147,57,219,252,219v195,0,252,-72,252,-219r0,-344","w":1114},"1":{"d":"362,-850r-266,150r-76,-138r359,-206r156,0r0,1044r-173,0r0,-850","w":708},"2":{"d":"123,0r0,-135r344,-299v203,-181,214,-194,213,-305v0,-129,-35,-174,-236,-174v-90,0,-214,25,-288,45r-29,-142v86,-29,230,-55,332,-55v327,3,393,111,393,332v0,133,-22,193,-223,371r-248,215r496,0r0,147r-754,0","w":1009},"3":{"d":"106,268r17,-143v90,14,170,22,270,22v193,0,262,-45,262,-176r0,-96v0,-133,-88,-184,-235,-184r-258,0r0,-152r235,0v233,-6,234,-103,234,-289v0,-123,-57,-163,-221,-163v-92,0,-191,8,-271,22r-18,-145v78,-18,187,-29,293,-29v289,0,389,101,389,291v0,201,0,308,-172,383v117,31,196,107,196,254r0,125v0,213,-127,311,-434,311v-98,0,-201,-11,-287,-31","w":960},"4":{"d":"1090,-88r-209,0r0,346r-170,0r0,-346r-629,0r0,-164r571,-792r228,0r0,815r209,0r0,141xm252,-229r459,0r0,-641","w":1150},"5":{"d":"172,-326r0,-718r692,0r0,151r-520,0r0,426v74,4,96,4,225,12v215,14,312,127,312,303v0,305,-44,451,-422,451v-100,0,-211,-10,-326,-41r19,-141v96,20,209,30,307,30v231,0,250,-75,250,-266v0,-127,-31,-178,-201,-188v-170,-10,-195,-13,-336,-19","w":993},"6":{"d":"334,-879r0,174v68,-25,182,-47,272,-47v284,0,350,129,350,385v0,240,-65,387,-393,387v-295,0,-399,-122,-399,-315r0,-586v0,-340,151,-462,536,-462v63,0,160,8,226,24r-19,143v-49,-10,-131,-18,-180,-18v-317,0,-393,67,-393,315xm590,-602v-90,0,-188,26,-256,55r0,228v0,145,73,188,229,188v176,0,223,-53,223,-188r0,-107v0,-125,-46,-176,-196,-176","w":1079},"7":{"d":"61,-891r0,-153r799,0r0,145r-565,1178r-141,-68r530,-1102r-623,0","w":925},"8":{"d":"956,-1022v0,181,-26,250,-213,346v207,103,248,172,248,371v0,229,-123,325,-424,325v-329,0,-424,-108,-424,-385v0,-139,60,-225,242,-311v-182,-95,-207,-167,-207,-346v0,-186,92,-321,389,-321v295,0,389,135,389,321xm823,-311v0,-175,-30,-186,-256,-287v-227,99,-256,113,-256,287v0,139,66,184,256,184v188,0,256,-45,256,-184xm346,-1030v0,176,17,194,221,285v204,-90,221,-110,221,-285v0,-106,-51,-168,-221,-168v-172,0,-221,62,-221,168","w":1134},"9":{"d":"745,-166r0,-174v-68,25,-182,47,-272,47v-284,0,-350,-128,-350,-385v0,-240,71,-387,393,-387v295,0,399,129,399,322r0,579v0,340,-151,463,-536,463v-63,0,-159,-9,-225,-25r16,-143v49,10,133,19,182,19v317,0,393,-68,393,-316xm489,-442v90,0,188,-27,256,-56r0,-227v0,-145,-73,-188,-229,-188v-176,0,-223,53,-223,188r0,107v0,125,46,176,196,176","w":1069},":":{"d":"174,-627r0,-235r176,0r0,235r-176,0xm174,0r0,-236r176,0r0,236r-176,0"},";":{"d":"170,0r0,-236r176,0r0,236r-123,246r-80,-39r86,-207r-59,0xm170,-627r0,-235r176,0r0,235r-176,0","w":520},"<":{"d":"102,-553r846,-467r62,113r-748,407r748,408r-62,112r-846,-466r0,-107","w":1142},"=":{"d":"143,-612r0,-127r756,0r0,127r-756,0xm143,-248r0,-127r756,0r0,127r-756,0","w":1042},">":{"d":"195,-1020r845,467r0,107r-845,466r-62,-112r748,-408r-748,-407","w":1142},"?":{"d":"410,-459r-99,-131v80,-61,144,-104,228,-172v127,-102,131,-129,131,-287v0,-172,-25,-223,-238,-223v-80,0,-209,11,-297,31r-22,-148v78,-20,227,-36,331,-36v332,0,398,118,398,368v0,221,-13,275,-185,410xm309,0r0,-236r176,0r0,236r-176,0","w":974},"@":{"d":"860,-582r53,-305v-86,-27,-220,-47,-239,62r-39,221v-10,53,6,69,67,69v45,0,117,-18,158,-47xm514,-592r41,-235v25,-135,96,-185,246,-185v76,0,169,25,243,58r-75,430v16,6,43,12,80,12v178,0,235,-151,235,-305v0,-272,-176,-451,-493,-451v-303,0,-537,236,-537,586v0,350,199,586,600,586v133,0,244,-29,365,-78r36,102v-117,63,-266,92,-405,92v-469,0,-727,-282,-727,-702v0,-410,271,-702,668,-702v403,0,620,227,620,563v0,233,-119,413,-367,413v-82,0,-143,-24,-174,-73v-68,37,-135,57,-211,57v-113,0,-163,-66,-145,-168","w":1523},"A":{"d":"756,-1364r461,1364r-179,0r-112,-328r-580,0r-110,328r-179,0r461,-1364r238,0xm881,-481r-244,-756r-244,756r488,0","w":1273},"B":{"d":"729,0r-555,0r0,-1364r526,0v215,0,322,97,322,277v1,195,20,322,-156,385v119,20,201,100,201,245r0,164v0,190,-133,293,-338,293xm891,-307r0,-144v0,-109,-62,-167,-197,-167r-344,0r0,466r355,0v125,0,186,-53,186,-155xm846,-930r0,-153v0,-88,-50,-129,-156,-129r-340,0r0,442r312,0v133,0,184,-62,184,-160","w":1169},"C":{"d":"319,-973r0,582v0,190,74,252,297,252v82,0,216,-11,320,-29r18,152v-98,23,-242,36,-344,36v-334,0,-467,-143,-467,-401r0,-602v0,-258,133,-401,467,-401v102,0,246,13,344,36r-18,152v-104,-18,-238,-29,-320,-29v-223,0,-297,62,-297,252","w":1056},"D":{"d":"174,-1364r477,0v334,0,439,174,439,391r0,582v0,217,-105,391,-439,391r-477,0r0,-1364xm350,-1206r0,1048r295,0v207,0,268,-85,268,-245r0,-558v0,-160,-61,-245,-268,-245r-295,0","w":1222},"E":{"d":"174,0r0,-1364r803,0r0,158r-627,0r0,428r582,0r0,157r-582,0r0,463r629,0r0,158r-805,0","w":1105},"F":{"d":"350,0r-176,0r0,-1364r811,0r0,158r-635,0r0,454r592,0r0,158r-592,0r0,594","w":1067},"G":{"d":"319,-973r0,582v0,174,52,252,285,252v72,0,162,-7,256,-25r0,-463r170,0r0,588v-133,39,-291,59,-432,59v-348,0,-455,-149,-455,-401r0,-600v0,-276,138,-403,478,-403v117,0,251,14,378,43r-20,151v-131,-23,-254,-35,-367,-35v-225,0,-293,68,-293,252","w":1183},"H":{"d":"1130,0r-176,0r0,-618r-604,0r0,618r-176,0r0,-1364r176,0r0,588r604,0r0,-588r176,0r0,1364","w":1304},"I":{"d":"360,-1364r0,1364r-176,0r0,-1364r176,0","w":544},"J":{"d":"174,-1364r176,0r0,1370v0,162,-22,181,-258,400r-110,-125v188,-180,192,-187,192,-281r0,-1364"},"K":{"d":"350,-1364r0,1364r-176,0r0,-1364r176,0xm1092,-1364r-500,670r541,694r-211,0r-529,-694r492,-670r207,0","w":1204},"L":{"d":"350,-1364r0,1206r592,0r0,158r-768,0r0,-1364r176,0","w":1024},"M":{"d":"698,-176r-348,-930r-26,1106r-170,0r47,-1364r223,0r393,1055r393,-1055r224,0r47,1364r-170,0r-27,-1106r-348,930r-238,0","w":1634},"N":{"d":"936,0r-594,-1161r0,1161r-168,0r0,-1364r242,0r594,1167r0,-1167r168,0r0,1364r-242,0","w":1351},"O":{"d":"1130,-971r0,578v0,227,-141,413,-493,413v-352,0,-494,-186,-494,-413r0,-578v0,-227,142,-413,494,-413v352,0,493,186,493,413xm319,-967r0,570v0,168,103,262,318,262v215,0,317,-94,317,-262r0,-570v0,-168,-102,-262,-317,-262v-215,0,-318,94,-318,262","w":1273},"P":{"d":"174,0r0,-1364r494,0v293,0,395,127,395,336r0,203v0,211,-102,338,-395,338r-318,0r0,487r-176,0xm887,-1026v0,-135,-57,-180,-225,-180r-312,0r0,561r312,0v168,0,225,-47,225,-180r0,-201","w":1140},"Q":{"d":"1130,-971r0,578v0,195,-104,360,-356,401r115,260r-158,72r-141,-322v-317,-16,-447,-194,-447,-411r0,-578v0,-227,142,-413,494,-413v352,0,493,186,493,413xm319,-967r0,570v0,168,103,262,318,262v215,0,317,-94,317,-262r0,-570v0,-168,-102,-262,-317,-262v-215,0,-318,94,-318,262","w":1273},"R":{"d":"1024,0r-340,-494r-334,0r0,494r-176,0r0,-1364r520,0v293,0,396,127,396,336r0,197v0,162,-60,272,-218,317r355,514r-203,0xm913,-1026v0,-135,-57,-180,-225,-180r-338,0r0,557r338,0v168,0,225,-47,225,-180r0,-197","w":1294},"S":{"d":"973,-352v0,238,-70,372,-445,372v-131,0,-288,-24,-405,-71r29,-144v125,39,255,60,380,60v219,0,265,-57,265,-213v0,-184,-2,-201,-283,-264v-330,-74,-369,-137,-369,-420v0,-238,99,-352,437,-352v119,0,259,16,368,45r-14,149v-109,-25,-237,-39,-350,-39v-223,0,-264,45,-264,203v0,188,0,196,270,264v362,90,381,144,381,410","w":1105},"T":{"d":"449,0r0,-1206r-408,0r0,-158r991,0r0,158r-407,0r0,1206r-176,0","w":1073},"U":{"d":"954,-1364r176,0r0,981v0,223,-129,403,-483,403v-354,0,-483,-180,-483,-403r0,-981r176,0r0,971v0,168,92,256,307,256v215,0,307,-88,307,-256r0,-971","w":1294},"V":{"d":"487,0r-450,-1364r170,0r399,1210r400,-1210r170,0r-451,1364r-238,0","w":1212},"W":{"d":"1053,-1364r282,1196r312,-1196r172,0r-359,1364r-248,0r-282,-1219r-283,1219r-248,0r-358,-1364r172,0r311,1196r283,-1196r246,0","w":1859},"X":{"d":"61,0r443,-692r-428,-672r188,0r338,533r340,-533r188,0r-430,672r445,692r-189,0r-354,-553r-352,553r-189,0","w":1206},"Y":{"d":"561,-602r357,-762r184,0r-453,952r0,412r-176,0r0,-412r-453,-952r185,0","w":1122},"Z":{"d":"1040,-1212r-704,1060r719,0r0,152r-912,0r0,-152r703,-1060r-690,0r0,-152r884,0r0,152","w":1187},"[":{"d":"592,258r-397,0r0,-1876r397,0r0,148r-225,0r0,1581r225,0r0,147","w":632},"\\":{"d":"629,240r-506,-1624r164,0r504,1624r-162,0","w":903},"]":{"d":"438,258r-397,0r0,-147r225,0r0,-1581r-225,0r0,-148r397,0r0,1876","w":632},"^":{"d":"850,-836r-123,64r-256,-483r-256,483r-123,-64r305,-569r148,0","w":942},"_":{"d":"883,100r-885,0r0,-80r885,0r0,80","w":880},"`":{"d":"498,-1225r-70,107v-104,-55,-191,-108,-285,-178r74,-115v72,59,179,127,281,186","w":641},"a":{"d":"870,-694r0,694r-145,0r-10,-74v-88,61,-203,94,-324,94v-186,0,-264,-110,-264,-286v0,-207,104,-281,305,-281r266,0r0,-155v0,-125,-55,-168,-217,-168v-96,0,-221,16,-299,32r-18,-137v94,-25,222,-43,328,-43v285,0,378,111,378,324xm698,-209r0,-194r-254,0v-106,0,-145,33,-145,133v0,102,18,143,141,143v86,0,182,-33,258,-82","w":1009},"b":{"d":"944,-707r0,355v0,227,-82,372,-424,372v-92,0,-241,-11,-356,-38r0,-1387r172,-25r0,482v70,-37,188,-70,315,-70v207,0,293,121,293,311xm336,-791r0,646v68,10,135,14,196,14v203,0,240,-82,240,-215r0,-367v0,-102,-45,-153,-162,-153v-88,0,-206,42,-274,75","w":1062},"c":{"d":"500,20v-319,0,-398,-133,-398,-362r0,-313v0,-229,87,-363,398,-363v88,0,186,15,237,31r-14,143v-78,-16,-149,-22,-219,-22v-172,0,-230,48,-230,204r0,326v0,156,58,205,230,205v70,0,141,-7,219,-23r16,144v-51,16,-151,30,-239,30","w":837},"d":{"d":"127,-285r0,-407v0,-199,91,-326,324,-326v88,0,204,15,284,31r0,-418r172,-25r0,1430r-145,0r-14,-90v-82,66,-199,110,-330,110v-197,0,-291,-104,-291,-305xm735,-250r0,-586v-92,-18,-204,-30,-274,-30v-115,0,-162,53,-162,174r0,407v0,102,33,154,154,154v98,0,208,-53,282,-119","w":1071},"e":{"d":"285,-432v-5,199,4,305,237,305v98,0,207,-18,316,-47r22,137v-94,35,-227,57,-352,57v-295,0,-395,-141,-395,-366r0,-299v0,-207,94,-373,391,-373v295,0,375,170,375,377r0,209r-594,0xm504,-874v-195,0,-230,114,-219,299r428,0v7,-181,-13,-299,-209,-299","w":985},"f":{"d":"723,-1417r-14,133v-53,-10,-123,-19,-166,-19v-106,0,-133,38,-133,138r0,168r284,0r-14,143r-270,0r0,854r-172,0r0,-854r-177,0r0,-143r177,0r0,-185v0,-176,98,-264,282,-264v66,0,135,9,203,29","w":722},"g":{"d":"936,-997r0,100r-119,23v44,61,55,142,55,243v0,215,-131,340,-391,340v-37,0,-71,-2,-102,-6v-35,29,-72,64,-72,107v0,39,21,53,66,57v104,10,157,17,282,29v180,18,250,87,250,239v0,217,-76,289,-436,289v-92,0,-250,-16,-363,-47r25,-135v104,25,234,41,334,41v254,0,278,-36,278,-140v0,-84,-30,-98,-147,-108v-111,-10,-147,-18,-264,-25v-247,-15,-234,-260,-101,-358v-105,-60,-139,-171,-139,-328v0,-217,104,-342,389,-342v51,0,121,7,168,21r287,0xm709,-631v0,-171,-44,-246,-228,-246v-184,0,-227,73,-227,246v0,152,63,199,227,199v164,0,228,-68,228,-199","w":1003},"h":{"d":"938,0r-172,0r0,-762v0,-66,-33,-92,-96,-92v-74,0,-228,47,-334,102r0,752r-172,0r0,-1405r172,-25r0,517v111,-53,268,-105,385,-105v160,0,217,100,217,254r0,764","w":1091},"i":{"d":"336,0r-172,0r0,-997r172,0r0,997xm336,-1157r-172,0r0,-248r172,0r0,248","w":499},"j":{"d":"164,-997r172,0r0,1060v0,141,-15,161,-232,351r-104,-121v164,-145,164,-156,164,-240r0,-1050xm336,-1157r-172,0r0,-248r172,0r0,248","w":489},"k":{"d":"336,0r-172,0r0,-1405r172,-25r0,1430xm731,-997r199,0r-357,493r373,504r-203,0r-364,-504","w":991},"l":{"d":"336,0r-172,0r0,-1405r172,-25r0,1430","w":499},"m":{"d":"1540,0r-172,0r0,-762v0,-66,-33,-92,-96,-92v-82,0,-228,45,-334,100r0,754r-172,0r0,-762v0,-66,-33,-92,-96,-92v-74,0,-228,45,-334,100r0,754r-172,0r0,-997r139,0r16,86v111,-53,283,-107,402,-107v102,0,161,39,190,107v119,-57,287,-107,412,-107v160,0,217,100,217,254r0,764","w":1693},"n":{"d":"938,0r-172,0r0,-762v0,-66,-33,-92,-96,-92v-74,0,-228,45,-334,100r0,754r-172,0r0,-997r139,0r16,86v111,-53,283,-107,402,-107v160,0,217,100,217,254r0,764","w":1091},"o":{"d":"924,-354v0,209,-115,374,-406,374v-291,0,-405,-165,-405,-374r0,-289v0,-209,114,-375,405,-375v291,0,406,166,406,375r0,289xm752,-649v0,-145,-78,-219,-234,-219v-156,0,-233,74,-233,219r0,301v0,145,77,219,233,219v156,0,234,-74,234,-219r0,-301","w":1036},"p":{"d":"944,-713r0,408v0,199,-90,325,-323,325v-88,0,-205,-14,-285,-30r0,413r-172,25r0,-1425r145,0r15,90v82,-66,198,-111,329,-111v197,0,291,104,291,305xm336,-748r0,586v92,18,204,31,274,31v115,0,162,-53,162,-174r0,-408v0,-102,-33,-153,-154,-153v-98,0,-208,52,-282,118","w":1071},"q":{"d":"119,-291r0,-354v0,-227,82,-373,424,-373v92,0,241,12,356,39r0,1382r-172,25r0,-477v-70,37,-188,69,-315,69v-207,0,-293,-121,-293,-311xm727,-207r0,-645v-68,-10,-136,-14,-197,-14v-203,0,-239,82,-239,215r0,366v0,102,45,154,162,154v88,0,206,-43,274,-76","w":1062},"r":{"d":"598,-1018r23,158v-94,45,-203,115,-285,172r0,688r-172,0r0,-997r149,0r11,139v74,-57,176,-119,274,-160","w":630},"s":{"d":"784,-268v0,195,-59,288,-344,288v-102,0,-237,-22,-317,-53r22,-135v86,25,199,41,285,41v158,0,184,-29,184,-135v0,-106,-7,-119,-208,-168v-248,-61,-271,-113,-271,-320v0,-184,82,-268,344,-268v96,0,201,12,283,35r-12,141v-84,-16,-195,-28,-277,-28v-147,0,-168,35,-168,125v0,111,2,131,170,172v287,72,309,106,309,305","w":899},"t":{"d":"662,-150r22,134v-61,23,-135,36,-209,36v-168,0,-248,-61,-248,-227r0,-647r-176,0r0,-143r176,0r0,-246r172,-25r0,271r283,0r-14,143r-269,0r0,618v0,74,11,111,103,111v47,0,97,-9,160,-25","w":755},"u":{"d":"154,-997r172,0r0,761v0,66,33,93,96,93v74,0,228,-46,334,-101r0,-753r172,0r0,997r-140,0r-16,-86v-111,53,-282,106,-401,106v-160,0,-217,-99,-217,-253r0,-764","w":1091},"v":{"d":"461,-141r274,-856r170,0r-330,997r-229,0r-330,-997r170,0","w":921},"w":{"d":"1176,0r-222,0r-241,-846r-242,846r-221,0r-213,-997r164,0r166,827r241,-827r209,0r242,827r166,-827r164,0","w":1425},"x":{"d":"219,0r-182,0r328,-502r-322,-495r178,0r238,366r237,-366r178,0r-323,495r330,502r-181,0r-241,-371","w":917},"y":{"d":"272,403r140,-403r-72,0r-324,-997r170,0r273,860r276,-860r170,0r-330,997r-141,403r-162,0","w":917},"z":{"d":"133,-858r0,-139r688,0r-2,139r-508,719r516,0r0,139r-704,0r0,-139r508,-719r-498,0","w":940},"{":{"d":"160,-594r-47,0r0,-139r47,0v68,0,86,-31,86,-86r0,-529v0,-190,55,-270,241,-270r134,0r0,145v-92,4,-203,-27,-203,82r0,494v0,61,10,225,-137,233v147,8,137,173,137,234r0,493v-10,109,110,78,203,82r0,146r-134,0v-186,0,-241,-81,-241,-271r0,-528v0,-55,-18,-86,-86,-86","w":641},"|":{"d":"322,-1618r0,2048r-117,0r0,-2048r117,0","w":526},"}":{"d":"528,-594r-47,0v-68,0,-86,31,-86,86r0,528v0,190,-55,271,-241,271r-134,0r0,-146v92,-4,203,27,203,-82r0,-493v0,-61,-10,-226,137,-234v-147,-8,-137,-172,-137,-233r0,-494v10,-109,-110,-78,-203,-82r0,-145r134,0v186,0,241,80,241,270r0,529v0,55,18,86,86,86r47,0r0,139","w":641},"~":{"d":"823,-707r109,50v-41,123,-113,241,-260,241v-147,0,-222,-149,-320,-149v-82,0,-112,63,-151,155r-109,-53v55,-143,125,-239,262,-239v137,0,218,151,320,151v90,0,118,-78,149,-156","w":1024},"\u00a0":{"w":440}}});